{"modelVersion":"v1.0.0","architecture":{"input_dim":3,"hidden_sizes":[32,16],"output_dim":1,"activations":["relu","relu","sigmoid"]},"training":{"n_samples":10000,"train_size":8500,"val_size":1500,"r2_val":0.985125,"mae_val":0.02165,"epochs_run":2000},"thresholds":{"low_medium":0.3,"medium_high":0.6},"feature_names":["Mn","Tn","Vn"],"dataset_info":{"description":"Physics-based synthetic dataset grounded in Mohr-Coulomb failure criterion, soil saturation thresholds, and seismic amplification. References: Zenodo (LSTM+IoT landslide monitoring), SciTePress (soil deformation monitoring using geophone + ADXL345 + moisture sensors), Kaggle Landslide Dataset (Soil_Saturation, Slope_Angle)."},"layers":[{"weights":[[0.4406718861204713,-0.1517698994641159,0.5982366600354213,1.38368111858526,0.23260872933836493,-0.1911720248178281,1.183279811706354,0.9028686187399549,-0.1799530548758375,0.41939008322585164,-0.3783789617227907,-0.381355355167751,0.17450952421372204,-1.5621867781196552,-1.4083796737316476,-0.4529336435936528,-0.8260550714230457,0.3073268003526377,-0.7244726233346457,-1.153141143371838,1.1892821308809893,-0.11276174776815397,0.006481376543161341,-1.1349678811930695,-0.4444866332909318,0.07331156711752508,-0.9316939287538704,0.4974565082866543,-0.4904194366916129,-0.23816694938419808,-0.49129139160690766,1.554745395558827],[0.04709295789910268,-0.899607204594448,0.711025124069597,-0.9099678206226319,0.4154517838652568,-1.6000639558940501,-1.170722552299982,0.5001486001831662,0.7614080481590871,0.15076146007213947,-0.09442642716016254,-0.2586046223071,-1.2081639003789977,-0.5877503349549051,-0.37609657498664717,0.8566670895393357,0.28189120807290724,-1.4101007565741412,0.2256057498016173,-0.3144183653357743,-0.5750315933865987,0.5757555133246918,0.8118697767195017,0.7585333556005425,-0.6852182383659189,-0.2724633535188546,0.2589740970000782,0.9465574442382544,-0.39124412686932825,-0.15158991966454716,-0.9033187236366866,-0.9416061408571786],[0.651028561936404,0.988851203861552,-0.11451580728853063,0.6671612686330983,0.15674479526691845,-0.5267380739240176,0.355387879009803,1.2171842197065845,-0.06581137920817734,1.2932113491113513,-2.139012920391426,0.6930782752255422,0.06572942043162847,-0.2441384793276391,0.07482816290745685,-1.6215682201163433,-0.17016388377007777,0.3629437808133187,1.2300705569064045,-0.42316586121709937,-0.6493849524989003,-0.3499989125188539,0.7534795790350665,0.28666142102753783,-0.4325473950873626,0.41920572092003694,0.05518558396310874,0.7112244652001861,-0.5732239507805901,-0.2675350223965171,-0.32015496638629193,-1.1667276362689383]],"biases":[0.019710692568110044,-0.17623876355446305,-0.2577890394116004,-0.30192331963640245,-0.48503355052365177,0.0,0.19955354834298178,-0.0961433010603162,-0.25659832531265525,0.09133083573873389,0.0,-0.01971528643469939,-0.011656698132842277,0.0,0.000842547498830945,-0.03524021984386688,-0.01807164563653067,0.1196087927515542,0.052164522700239385,0.0,0.0034519851190178627,-0.006419077092925364,0.17419145825745277,0.020278341848524225,0.0,-0.04104541261009689,0.01859882338444201,-0.2801995538233542,0.0,0.0,0.0,-0.05973248769307971]},{"weights":[[0.048962141216840595,0.15713901214607237,0.04021218928074979,-0.049890023201028,-0.35200213091494353,-0.13688693502474836,-0.0862610019663619,-0.15206259349300655,-0.04032448523618175,0.09210605557236924,0.4807017155184596,0.0407663399419734,0.061852100887322514,-0.022093878060527136,-0.48098750195304624,0.0283350619992105],[0.02373725817126748,0.42361258853631684,-0.12532721292031967,0.15818951066265974,-0.009112424975753977,-0.2815587539067597,0.28570570362875514,0.14974990246318204,0.19788122760458332,-0.24829800272476363,0.3381108954121186,-0.35058044515824255,0.11338609210982424,0.5449099723895378,-0.24763408128267209,-0.268750888696255],[-0.01719039306132731,0.2453517675227598,-0.24203775955668205,-0.06945289383287014,-0.2640736336663496,0.09758080963937636,-0.23034926333996478,0.5260598792065838,-0.1965922012674826,-0.09515083178663875,0.22385204274081785,-0.3103811235840501,0.10443382532404104,0.3188150378528088,-0.4104370223774653,0.332892114516289],[0.057952099731764864,0.1956365648395095,-0.30615842429903456,-0.27605345899872213,0.13461669878976873,0.04883022875447306,0.06200912338412047,0.28641982182482434,-0.17079191320698278,0.02556965620992602,0.08236129069021618,-0.18219044282289287,0.44366588471876683,0.11611892710639128,-0.29782587430066215,0.27970086644340664],[-0.2696098996722707,0.3342846916513924,0.35840520051128455,-0.2974018707116502,0.2407331488549884,0.07086225287041575,0.2055150399986225,0.5882143103722739,-0.06133905491677475,-0.19922878840134461,-0.2271106089563243,-0.20387805915284027,0.02233214910076884,0.0836999570346783,0.06856376395465677,0.27760067716695863],[0.003250472969476755,0.3633835192893292,-0.06616420830948902,0.6800422916474047,0.15641683694125155,-0.21428938910407064,-0.2677231245152781,0.12061810381079632,-0.055865696331462725,0.178500123523023,0.11830940614338621,-0.018207228164218194,-0.21169842951710124,-0.37871180617146616,-0.11162873801675527,0.21409969858086808],[0.07127076480632344,-0.2798503830206248,0.04591004155104587,0.1707151606603384,-0.21652061455961974,0.032856959064578105,0.008442129568348883,-0.254738674564817,0.08860247121600899,0.13861665753750413,0.27719896918916803,0.2575450887185329,-0.36858175192916187,-0.23577935230595684,0.12875881680216494,0.15923434997571217],[0.0625924534455657,1.2178345375532724,0.25295962440345404,0.23880279819250708,0.24206209353438868,0.09012379751278937,-0.07890947129383388,0.3365733559250485,-0.19287474804934798,-0.07998695948929875,-0.10639526791957502,0.015478250837878895,0.6039000955389636,-0.47372521719669763,0.16501600266829988,-0.25611443054234],[-0.1344171815539607,0.42042811899085797,0.07450201790994668,-0.3314977398693967,-0.17882630890167883,0.16900612975127546,-0.18259165792928417,0.12695027982766388,0.011386198132661863,-0.16808834927662406,0.5336962062180338,0.15853419275185424,-0.4719675098909874,0.04187825028071242,-0.1737274442164244,0.29269528924563104],[-0.22058778387435782,0.06507240310166772,0.16146818105817726,0.28617347075607125,-0.29798094411416454,-0.11476175518545517,-0.1211042113987354,-0.14838350180388432,0.441217062199383,0.08753924000542758,-0.3035891698539742,0.22430306710661274,0.5044235669165519,0.24822651291675432,-0.3850888363183855,-0.16673420955731547],[0.3167277872966557,-0.1769173664046952,0.11095485703655711,0.1936585133573342,-0.23173261789452074,-0.01488133901545002,-0.8103168350172681,-0.25609691033357246,-0.06314203784829008,-0.3119457954912124,0.4081028259829088,-0.35753534449015817,-0.11001112167424594,0.032685144321522835,0.3603183222665289,-0.35896553779485985],[0.29326118233113063,-0.1450636204172575,-0.30587517691735566,0.19291118741571403,0.049412493116757605,-0.15197735979329358,0.016807107489644816,-0.1616623030834973,0.028550630344604516,0.1645433205859344,0.38858062635787566,-0.30951465559955194,0.5010710129429582,-0.49004793038068006,-0.03794627375889583,-0.015521777187153918],[0.06957092602100666,-0.14935071983123757,-0.04804042856399811,-0.12782200003597405,-0.14683569002046107,0.2119692443039787,0.088525210504311,-0.16401581747452887,0.2248748845598044,0.0782494109282971,0.20213554625967325,0.1575882113501168,-0.20529086029292107,-0.1400657047492712,0.18682340128081545,0.14907416394803893],[-0.005225398491037033,0.0293318458271955,0.3194162239471062,-0.14789284720895748,0.13677434529250948,-0.050548163108473515,-0.05442030080680507,0.2746942129967975,0.20635408724700746,0.20337740900015963,0.32636970178858227,0.005250960408189762,0.17048824282374098,-0.07756668914836401,0.08104158812211053,-0.032535763591921146],[0.024258263901557896,0.14879331893481929,-0.20454823541669986,0.523051617805627,-0.2515220986269147,-0.3035354735304732,0.28952771837501695,0.19789325907002633,0.1560297356891159,0.15706190501756967,-0.003077076463517502,-0.22431359287145788,0.01897303926534781,-0.16929997185080417,0.2437799333544378,-0.036871575805698824],[-0.20685062898022175,-0.10761555474475537,0.07923047964409277,-0.10072933029511612,-0.20555513868171837,0.07498155091836767,0.061241642777180694,-0.1340608125577062,-0.11775639263104179,0.05195588221093303,-0.36321722763188746,-0.3518621552288708,-0.19171331574574635,-0.05774987767742322,0.06594385156275985,0.34330404849689594],[0.21526759487797303,-0.03967356691182813,-0.0069456599487951794,-0.247872452614017,-0.0046284869744811245,-0.0703762031773502,0.08067964008452237,-0.20452613879961792,0.12983662856029307,0.3816224667790998,-0.027914430041064,0.10042793052473536,0.1723605688840498,-0.10121116403705345,0.05219081580803386,0.0003387471021066818],[0.032540841026647935,-0.19509753163578797,0.0050229235509134705,0.1444133771394977,0.3639563949176409,0.24980901833199817,0.5342419875591508,-0.16313509932329495,0.21802217527795642,0.045680945156473064,0.5450500917506289,-0.202782073553304,-0.21545440047777828,-0.1501153826618835,-0.5309739310774517,-0.15827851488316358],[-0.18949947539909162,-0.10041545124232935,0.026807575902940244,0.5660472322211668,0.23697043320583777,-0.147004261013276,-0.22577874367491216,0.028484151814121835,-0.3296218615550043,0.458131209359122,0.2834448971871939,-0.11738218347056825,-0.4661787719959863,0.33038898287378693,-0.03452926124344281,0.02026280538611274],[-0.3986069146985918,-0.14984375573844322,0.0013109249295457915,0.011745148441185514,-0.11251636786981091,0.1557124830868747,-0.2669051073456486,-0.035594871255323374,0.030073907927974715,0.12860970851468725,0.17790371952222245,-0.2811605229594673,-0.38352854268390557,0.31941920547462727,0.08307850299489791,-0.1871216341391384],[0.38215618849484945,0.19209776931012285,0.35918834625078,-0.033612352746369166,0.5187949974439234,0.42789353061017504,-0.06493012843143721,0.30578570495523877,0.16051372771502934,0.3474838765493973,-0.2387526130556093,0.16829003181555843,0.2946752117249449,-0.4400897550262477,-0.29581462816644377,-0.3622174396036219],[-0.0745781541612005,0.2555935672554191,0.3999693513852667,0.003981163214392031,0.40712968846450814,-0.3327647035560374,-0.42592205564677654,-0.008325769287056795,0.0960274384423312,-0.01087950281150338,-0.5186000623636844,-0.022175346030389363,-0.31235688134205786,0.16250826589994977,0.08282795376875464,-0.19082665314291436],[-0.14291503183113352,-0.030445000879686126,0.06244386023205521,0.2810277125161823,-0.2458726604567875,0.13009213848148443,-0.13590652082810661,-0.23715633276138462,-0.0270751706620634,-0.26769189619997646,-0.12565878792670995,-0.30400007143488667,0.4878359255709289,-0.007648021481865053,-0.19245034654327509,0.06173672148083246],[-0.015428852384123068,-0.014999267430128423,0.16560604562129805,0.1660079828407384,-0.13272289140030596,-0.1268789654854543,-0.06876318277294845,-0.5783759745054796,-0.37883366480174624,0.3447513413461795,0.39937430077565433,-0.06225913430839931,0.1620483308056979,0.07170075780317016,0.7570846380933063,0.22867503623173638],[-0.031979397870191634,-0.23888511015010644,-0.4016115800643931,0.050865908966805776,-0.18908768632107584,-0.35556342739941854,-0.16164322106063164,-0.27038700090359874,0.4217854087681412,0.22040993923736263,-0.001993160329154343,0.36998603472250646,0.019342076911904576,-0.21532105033206592,0.3807810193174143,0.13472751092116467],[-0.25549707832822005,-0.15351661611757317,-0.26244068027856554,-0.28038391364041354,0.231728006745401,0.477718788301155,-0.3504049263185581,0.1274068978782082,-0.1627352725946235,-0.1281921461299205,-0.14999257842860308,-0.21662466012930565,-0.017638026832591584,-0.20900408453021588,0.0676142064449597,-0.09859488674083206],[-0.054100608376957335,-0.186451033855834,-0.1285806671682741,0.17496736665044202,0.1250984752071957,-0.2335564084524339,0.024342079350168216,0.1957930416288902,-0.4173959897077307,0.13675956386166768,-0.1693576320340604,0.14263693587833043,-0.1811930539228865,-0.4546244873886327,-0.41131242574594795,0.009768902086352966],[0.003262019539886556,0.08479039736702677,0.28853798065738223,-0.48998388095388706,-0.015370216961288038,-0.35374069286289794,-0.16295907813373012,0.18632119367624791,-0.21532589858215812,-0.12628769192149425,0.2680772904079336,-0.14720759249124335,0.24901890238272245,-0.2915992735034555,0.12178018408047553,0.5670436726921008],[-0.6179111250318223,-0.1992238138676192,0.144268031795135,-0.05076134651074817,0.09278646834282721,-0.15099629667895514,0.02164744686822498,-0.03891930884801987,0.29194551541495184,0.06360521082530328,0.08440066551880054,-0.10296924153061685,-0.12190155601812339,-0.10813954695490523,0.09861303559457421,-0.10524612020506574],[0.07244371422410323,0.5188501996613597,0.2177811758579231,-0.08150588304196028,0.3003034805409862,-0.10201884325538785,-0.5095311337944635,-0.252021577729351,-0.4676979802564639,-0.08787837101032717,0.004604594797387925,0.4191093280688207,0.08173184344104066,-0.05477513220221606,0.2073513952958723,-0.5527838272519713],[0.058903639527141484,0.1927162984717417,-0.3696465614449604,0.28593851080173227,0.08462410187360353,-0.10382197847520032,0.1581954665265712,0.567673214451099,0.04546656376462379,0.06205514657508402,-0.11484022488506103,-0.21246109236619795,0.2075839541360614,-0.2140209564772168,0.017891559304848117,-0.11941436169127917],[0.11299454078957688,0.14302251975611,0.2764136337926927,-0.13340202308513135,-0.0632373602770187,-0.2533883797241914,-0.11255834209765822,0.12319957930382178,0.18830075346556885,-0.2224108609206045,0.21646682421811558,0.3367481154071978,0.11331785642775008,0.4689611801914029,-0.19344729977589326,-0.259521529493805]],"biases":[0.19533603950961942,-0.13973828015106007,-0.11976715586407602,0.43557536796491164,-0.00020793358122415302,0.2198999762644019,-0.02151032167720248,-0.47011977516038017,-0.00480751034313556,-0.018631918225224697,-0.02577808172913637,-0.015260972546210668,-0.12479962199360214,-0.038338427051636655,-0.024230772679046785,-0.3711182918111761]},{"weights":[[-0.49198301265569905],[0.8618876438144814],[0.4900029657580408],[-0.672784138681571],[0.0752856561017159],[-0.34924839434478544],[0.6108907851122098],[0.8178415593791892],[0.01579183567476826],[0.24600044473041258],[-0.026423172138749965],[0.04745331672844476],[0.23564935517633034],[0.10982709489341592],[0.46848262345248187],[0.5771329589883443]],"biases":[-1.3807787188225042]}]}